-2.527261920427794
-0.8076993532198683
-0.4411847853690849
0.6453766558414797
-0.467126920928126
-0.288770408884953
-0.9093724240202186
-0.6652497052902508
-1.532528464726254
-0.8356798486737981
0.6005498069465186
0.0499968158441637
-1.114612280145282
1.333746132121504
2.083004415164103
-0.2022867310628521
-1.555974356332823
-0.07630384473276751
-0.9564874744033873
1.56575152979332
-0.3768679832263382
-0.9190553964968595
-1.575859414085631
0.06335911760177658
-0.7586587520035051
-1.893673489703296
1.207158648015292
0.4351167127933628
1.369440689645708
0.5207853432104943
-0.04473696810328901
0.3070690464901458
-1.35395474472605
-0.868526367281786
-0.1200190638225437
-0.7279281543318599
0.5520989217053203
-0.7977442170715419
1.220816919842839
-0.9276734728952734
-1.120286909606253
0.7450924600578628
0.08229750586610704
-1.857516861607231
0.2213958786125088
1.235265491698693
0.3386961859290528
-1.959579621464094
1.366079432093797
-0.6449115925049544
-0.3790563077818067
0.424988543829504
1.217400365789915
-1.153338741439535
0.07955268190506004
0.7107710968200519
-0.1878264968011269
0.1665490082248811
-0.6883135604278517
-1.5962255673219
-0.6214436548929413
-0.3525839162511034
-0.8737167498562499
0.3912057682155886
-0.5489495370837614
-0.01259692521489218
-1.956934147681463
0.3174666389955954
-0.9217709922710199
-1.709523320418231
-1.398039409049781
-0.05798832753363155
-0.4296928647615247
0.2440448500771628
0.3253814066390024
0.8294187677638181
-2.111532474568313
-0.5475304659998698
-1.319212608902767
0.5598503132436965
-0.7182595615664925
-1.391768173505888
-0.5125316983216045
-0.5348427602245927
1.400559682227697
-0.5692908398096893
-0.1135476769383088
1.092815031620596
1.221861554644782
-0.830437135671921
-0.5564352215964256
-0.2751904237000163
-1.692733307763193
0.9861640948815796
-0.4176660594888605
1.139740367241166
-0.5690144785630428
1.215106761872221
-1.391919880686448
-0.4134626599686466
-0.06857274715205534
-0.9088331951340463
-2.022953689634756
-0.4001344094349512
0.6867066954956239
0.494270547803399
-0.451344669732472
0.6198216833677338
0.8717409828720256
0.4559727680905694
-0.7588050938660695
-1.694917077611612
-1.650826974487639
-0.1512846886357445
-1.521898275532446
-1.373529362302304
-1.970845112192848
0.5991218205681612
-2.027389069624101
0.1627775916964966
-0.5708819863272272
0.02447285229586254
-2.15033431029409
-0.426064748165622
-0.9570853320652916
-0.7595246599116049
1.056414400219434
0.2405965740344436
-0.4223287504305425
-2.08194902169451
0.4491066081159175
-1.285612598585245
0.3039158424158003
-0.7654309584535963
-0.5906285647999118
0.5100680211397824
0.6969869885483376
-1.321530610669919
-0.7861818916688458
-1.225450210399406
-0.478130007387644
-2.967273998328029
-0.4173855978179548
0.5998492817081599
-1.826776223457906
1.137858420779534
-1.143732168064279
0.7164646727799163
0.3745369672262053
0.8084605474647263
-1.590089697060554
0.4273518794978153
-0.7442888764951634
-1.230273615691648
0.5551003964316791
-2.764044196531191
0.5211089102681938
-0.6040989693050516
-1.800631990187625
-1.896664272022531
-2.371578317640628
0.1804079104007879
-0.1539986164460682
-2.321953606534934
0.5161328018070155
0.3803178602607053
0.5535280380288631
-1.78507183225494
-1.766148632067584
-0.09439032214966883
-0.7827834971976259
1.625533090978335
0.1736969827536994
0.569124735948569
0.1185724418240214
-0.1292042704467175
-1.271346247009445
-1.063917946226329
-0.2687719963740691
1.188084250218657
0.7673373686224654
1.356406656295654
-0.6223158349947026
-1.917303365152212
-0.1558011803800575
-0.03320378594623107
-0.9872264918973386
-1.357284774616256
-1.813061396431685
-0.7231452065026128
0.4910891007693765
-0.6573855053107007
0.07130183384448643
1.232900179605116
-1.198324998436948
1.438190801248127
0.4021112852160891
-0.3901672426357513
1.4535518044065
-0.07701004423005135
0.3322749333248624
1.878117340300141
-1.046687567891832
0.3487908319701287
-0.8817907953550997
-1.155178049573495
-1.560858790982638
-0.2354708622366998
-1.59769613174141
1.270740254887834
-0.7545005627902632
-2.520211620385238
0.6012636154329426
-1.165267685289409
-0.3791999987297978
-1.097103017253905
0.6801677501330428
-0.7137225013369976
-0.3559349301413254
-2.96756654867637
-0.9679266207973471
0.4778203467717413
0.1333430787646402
0.3473088684449329
0.3098789617930491
-0.604280129716194
-0.4380446166154928
-1.837766146550625
-0.7483885282842693
-1.941314488853823
0.3407611586563042
0.7851431211850227
-1.515124774315746
0.5186324514421576
0.3811941634039027
-0.8633276906056069
-0.1005390341397671
-0.4122023107595154
-0.6277258800431531
0.1902574205655282
0.4029768203414574
-2.338486295584064
-0.4424708770677084
-0.4054603799396945
0.7799028053802178
1.243293381997793
0.05833123772724869
-1.312018343094718
-1.411592010935456
0.8254065968607298
0.05943703297363922
-1.583548289248949
-0.2260326653758636
0.2139773728422933
-1.02636649058059
-0.7032891851159688
-2.115107954072531
0.1243690212711924
1.300997405102512
1.807754741058953
-0.1636101802078602
0.5434142280091071
-0.6027489371687865
-0.511248083833627
0.0237744030774831
-2.056486666682006
0.5161903160928157
-1.696270571890655
-2.095750739258222
-1.421182786910161
-0.09988729733690069
-0.6032867495957019
-1.573962798701171
-1.135182085052399
0.2803602611051226
-2.186119938379645
-0.5427808259751838
-0.5890606651722032
-0.6916679795022836
-0.6161869156885281
0.02285390655769247
-1.07774703736261
-1.878700888550189
-0.1755397721536303
-1.759132634729784
-0.800825913076765
-1.045252504381793
-1.581018693730234
-0.4807073709193409
-0.3290404456705494
-2.154192047655957
-0.9364646466373118
-2.382424823423734
-0.5672373734433083
-0.2467464792384423
-1.612137492375693
0.4847672563693177
-0.6428332564868379
1.195362490718603
-1.850659387992765
1.034053903471171
-1.560979966543715
0.6799570138036983
-0.85574369054732
0.1619334739256166
0.3999933391971671
1.736364467811868
-0.5777595156061942
-0.6335268450512173
0.468388152506647
-1.45791710309319
1.108777310812686
1.63776075952425
0.7049916088499303
-0.9104282607337831
1.76303086461506
-0.5577670471660854
-0.6685493359242792
-0.5877924830718765
-0.2017326649689533
0.9454408645478161
-1.303576482037466
0.4865888882772499
-0.3186254260977763
-1.131387982905208
-0.6683122702773315
-0.9471884622968691
0.4469417629393395
-2.144195691054984
-2.803999179938716
0.9068706496640332
-0.1829688204384126
-0.2922855325517762
1.149518629018735
-1.258591189205277
-0.5838641449981747
1.415765684523301
-0.3249321605242207
0.9680037366697783
1.061069596856526
-0.133315109769665
0.1578380907589006
-1.026104899042348
-0.7115396457167361
-0.06342479511908906
1.139992728892261
-1.266585781002394
-2.13296672016786
0.9822037035158084
0.1767700729426658
0.8385452062842979
-2.34795634644747
1.451085291925571
-1.288236611792891
-0.08482180996617085
-1.649499710941894
0.6316064754264159
-0.2599762578295073
-1.254490792765835
-1.346682643658498
0.1816895475648919
0.9418592043982699
0.9364051805341227
-0.1256355495615106
-0.5351918152014097
-1.231212497744772
-0.947371281811823
0.7252427749032374
1.108637559866916
-0.4304850840219658
-1.148005080853867
-0.5457057256822129
1.130256979457253
-1.679325952633787
-1.220539602444055
-1.832400138413787
-0.8689156358540292
-1.237144347329799
-1.818004821599328
-1.423580875715885
0.08953829345157266
0.3810198513571419
-0.5655336444090674
-1.724257957340427
0.5501677035806497
-2.4398290510848
-0.252581739240383
0.7145296378537322
0.7438947317503742
-0.2384125272197543
-0.4771373852287811
-1.855550001300186
1.050173756579972
-1.413792075289031
-1.137926177075168
-0.8695865593732567
-1.103973869121472
0.08059438695400807
1.434143296577616
-0.6349833580359728
