-0.07015613946828445
0.8367225068832846
0.1223613451528209
1.086633162118623
-2.355346247230058
0.1094107859385315
-3.065141070012197
-4.191667427263564
1.910110012007771
0.131867980157505
2.392853919261976
0.3542362259762764
0.8379750252114038
-3.182447772501358
-1.706716463577553
-3.402838418873511
0.2006998713084121
-1.983384004161158
2.804803612893162
0.9154232399333521
-3.654647136949064
-1.651110026844438
0.122973636032126
0.8402918075152735
0.07955020359231281
-1.848612889411312
0.04987660025650593
-1.93095145623791
-4.18390136293602
2.280180205544209
-1.358169740279348
-1.873962554356156
-2.415050513535506
-0.9143473641859903
0.6381193526775827
3.172362954604009
-3.313194748577712
-2.536895623202432
2.109682819150775
-2.029863507682187
-3.054123024576586
2.022012984997607
-2.598133172321496
-0.6640500446560166
-3.62310305426175
-2.982505581118278
1.531177793318961
-1.987457433491222
-3.61584907275949
-3.658247770160365
-3.31863797564762
3.060068320437947
-0.03428176889572604
-1.331072828717508
-0.05381903679249808
-1.48334806935683
-3.170106972020847
0.3784295028646257
-2.983792349592725
1.555439849393342
1.548364309636158
-2.702385132565447
-0.4348623704343842
2.097591170592451
-2.077377439077682
-0.8987847901222893
3.875039970234695
-3.092157052520035
2.570988931074873
-0.04499340698750548
-3.642948378856616
0.9430929109170629
2.751319899188388
3.367911550252241
-0.2702673053444347
-3.31953925855653
2.184959591445723
0.1777573239161724
-0.6790736075964613
-3.15985135568994
2.298494011889918
-1.164622023055077
2.145895534614164
0.7992528306375739
3.489824605120483
-0.7022411262926422
-2.072792581645977
2.289044287347209
-2.77532094485628
-1.227427086213303
-2.324872071763816
-1.594258928835909
-2.374689250417724
-4.331967958464086
-0.6502280146283644
-1.893807275391501
-4.319571332479339
-1.229733139338924
2.584613402849954
2.031417860318498
-2.251002254727167
-3.338300507223081
1.205385109558887
-0.9336536711520427
1.83182708783654
-2.452524382437267
-4.086312047281385
-3.937774425761427
2.143076148711611
1.681131901405259
-2.315774599068955
0.8824430567704747
-3.315772678466432
1.023407626620082
-1.376252227441399
-3.518914159912095
1.489670868302363
-2.428662027019902
-1.245019822472193
-0.6956284724501431
0.3834921376789622
-0.8399835172764544
-3.375985945481209
-4.075811834642946
-1.45511286431958
-1.017498602315804
-2.390133618270478
2.821131021165187
-2.971247260280293
0.8130929781247973
-1.307523542831275
0.4479806986803927
0.1100515812034301
-1.349149005980379
-2.360393932603449
-4.457825752827596
2.412920994663043
0.2569964141590874
0.9992748239963923
-2.150159432064584
-2.768625351486938
0.2285144271251136
3.21711934605632
1.082892945474078
-0.3985567207221946
-1.554305017246021
-1.54651683374701
1.758977272519989
-4.87157368210604
-2.651493898674437
-0.1516396573871681
-2.242684983199215
-2.384901571460893
0.6339712453712106
-2.456716707954357
-1.367792364737735
1.289790584710451
-0.2130563435469847
-2.074364007802796
0.148379353433545
-3.147973587217612
0.174003951164959
-1.195410409580181
1.035059524861124
-1.089150139350137
2.561652565647721
-0.2969415504808562
3.198521611260885
-0.74096755486946
-4.975135411052163
2.811837345701441
0.8916245026462324
1.677092160715553
0.8425568805603463
1.006369609294774
-0.04889623703349832
0.7583795356880187
-3.296253982623512
-0.9562819526975561
0.3232679218428754
0.8278019739140601
0.8324397851188495
-1.228395407934517
-3.723663102318769
-1.427891799991285
-0.6464953882369779
-0.03890068077152253
-0.9740822468305019
0.9333978869953709
-1.66656013420005
-0.1177326249156018
-0.1925289889630769
0.5463766542951826
-2.402927056340165
-2.386605724943572
-1.461902471589993
-2.486734050474221
-4.383524072174295
-0.2518418603312279
-1.082752895414951
-2.610199701056445
1.384897535004839
-0.3289814909671411
-0.733549315978386
1.132505113805368
-1.560008583960917
3.05953578834274
-1.865159682041182
3.662048043327452
1.805899311141294
-4.34326854375819
-2.072914490803535
-2.319174795693252
-2.608383755584805
0.4056660683087137
1.722452789165233
-2.474204704785892
0.4643661993824711
-3.424314763272942
-1.929586543184966
0.8618192650310943
0.8340734383549973
-1.576587578658064
2.762614055557008
-0.9999771248208672
-1.933457053390933
-1.842542923000609
-0.2712832233772551
-2.550609841247989
0.4476154514156658
-2.117716908296858
-5.124266640741553
-0.7206175373053421
-1.371697609850623
-3.185196135044575
3.230663856299719
-1.543067215524518
2.295595987531909
-5.208861861706439
-0.2079638503426305
-0.9868992646158818
-2.498095264002584
0.8928959665965818
-3.321551452522154
2.443851522264029
-1.644047334171939
3.921935630814105
-4.165169337626422
-1.106920126969185
-0.5299780934896408
4.574580003925592
0.5554845977585059
-2.277536294648521
-0.6688812239147338
-2.696780561140607
-0.1383861879574257
-3.448538037189034
-1.95376044505304
-3.97228284844443
-1.197477988963611
1.368468243430568
-2.233225687551269
-1.277749936635771
-2.457734691633131
0.8406616736060769
-1.256198402978852
-0.001337288487788111
-0.3557907876523008
-0.3624472994507923
-2.36367929496441
-1.536785201356064
2.377917537919584
-0.7322885424218273
-0.5320495061180659
-0.03490571156922163
1.036292596924843
-2.490506517659901
-3.981024341914413
2.266916631108415
-0.07625695196327162
-4.582765973137779
-1.33661519343447
1.113948891340042
2.241712711120236
-2.31293296285465
0.5775205452440589
-0.7651196988018067
-1.3349477215272
-1.170362533293506
-3.878755179999615
-3.314777704602434
-2.119332605588911
-0.3371122739337455
3.329452214367729
0.1170520511352836
-2.879929011255405
-2.020713244202481
-1.312286509120476
-1.353276789344186
-3.224985656260468
-3.258555910863454
-1.567061060015214
-0.5349103188534622
-0.8682055173315971
3.341226340212502
2.666080811477533
1.211599150461061
-0.6724303253824979
0.1527845234065494
-1.642594944915611
1.590361113927896
-0.288011399069071
-2.452165266384073
-3.053369579454002
0.5620439985512943
1.727607675773187
-3.09301988863763
3.175946234902721
-1.27119520612464
2.545644553476929
1.264887769487278
1.003558686369675
-2.114564678369383
-3.476892994520338
-3.664561239403139
-0.59252709657471
-4.649025277439729
-3.255990384882644
2.112495145580718
0.04363670375582778
-4.936753062636311
-3.2442681158526
0.7951162803897519
-0.7419724412409949
1.501278729082943
1.846843035494174
0.6044893821789942
-4.516081282915625
-0.4863713443041913
-0.3269396606936449
1.751237900549123
0.04476793607846053
-2.448689275676162
-2.034312040656224
0.6704148391057764
0.3355006095681822
-1.230730745818444
1.250102132933656
-1.568317882875232
-3.918529570906331
-0.4315035530545083
2.624320713014904
-2.01652191846228
-0.8577788667275993
1.46846773153956
-3.017343195050441
2.78663193235382
-1.057473591005277
-0.523925213774571
-0.1392273542995837
0.2860136396853543
-2.486634271705562
0.5550784928610131
-1.891377834298961
1.234264776138348
0.06005223394959246
-3.862225499361872
-2.860474918264022
-3.851809936018953
-0.04193122709542528
-0.3078180423730715
-1.191630951686125
-1.880463824357109
3.11442819534378
1.629822028395605
3.033950044277687
1.175066862794405
2.10094556693746
1.7308004892543
0.04319099662226177
-0.9104165165533206
-1.753457051841491
-3.543465641730136
0.3019951998003789
-2.079852978844672
-0.4643188720790826
-1.567137001591264
-1.050819806841041
-2.197835955828376
1.635852335961061
-1.549908850101061
-2.778407458969977
2.190981784833358
-0.3596323995650428
2.096375845248153
-3.095424149351427
-2.293108722528299
0.5143432655473507
-3.150472525478939
-2.123101758801304
